digraph Tree {
node [shape=box] ;
0 [label="year <= 1996.5\ngini = 0.493\nsamples = 15446\nvalue = [10574, 2555, 1122, 1137, 58]"] ;
1 [label="startYear <= 1962.5\ngini = 0.555\nsamples = 3867\nvalue = [321, 2298, 1122, 113, 13]"] ;
0 -> 1 [labeldistance=2.5, labelangle=45, headlabel="True"] ;
2 [label="runtimeMinutes <= 102.5\ngini = 0.155\nsamples = 1133\nvalue = [0, 95, 1037, 0, 1]"] ;
1 -> 2 ;
3 [label="runtimeMinutes <= 96.5\ngini = 0.023\nsamples = 1010\nvalue = [0, 12, 998, 0, 0]"] ;
2 -> 3 ;
4 [label="startYear <= 1961.5\ngini = 0.002\nsamples = 962\nvalue = [0, 1, 961, 0, 0]"] ;
3 -> 4 ;
5 [label="gini = 0.0\nsamples = 945\nvalue = [0, 0, 945, 0, 0]"] ;
4 -> 5 ;
6 [label="rating <= 3.5\ngini = 0.111\nsamples = 17\nvalue = [0, 1, 16, 0, 0]"] ;
4 -> 6 ;
7 [label="gini = 0.0\nsamples = 1\nvalue = [0, 1, 0, 0, 0]"] ;
6 -> 7 ;
8 [label="gini = 0.0\nsamples = 16\nvalue = [0, 0, 16, 0, 0]"] ;
6 -> 8 ;
9 [label="year <= 1955.5\ngini = 0.353\nsamples = 48\nvalue = [0, 11, 37, 0, 0]"] ;
3 -> 9 ;
10 [label="gini = 0.0\nsamples = 35\nvalue = [0, 0, 35, 0, 0]"] ;
9 -> 10 ;
11 [label="rotten <= 72.089\ngini = 0.26\nsamples = 13\nvalue = [0, 11, 2, 0, 0]"] ;
9 -> 11 ;
12 [label="gini = 0.0\nsamples = 11\nvalue = [0, 11, 0, 0, 0]"] ;
11 -> 12 ;
13 [label="gini = 0.0\nsamples = 2\nvalue = [0, 0, 2, 0, 0]"] ;
11 -> 13 ;
14 [label="year <= 1954.5\ngini = 0.444\nsamples = 123\nvalue = [0, 83, 39, 0, 1]"] ;
2 -> 14 ;
15 [label="rotten <= 77.5\ngini = 0.497\nsamples = 61\nvalue = [0, 24, 36, 0, 1]"] ;
14 -> 15 ;
16 [label="runtimeMinutes <= 157.5\ngini = 0.285\nsamples = 36\nvalue = [0, 5, 30, 0, 1]"] ;
15 -> 16 ;
17 [label="year <= 1953.5\ngini = 0.062\nsamples = 31\nvalue = [0, 1, 30, 0, 0]"] ;
16 -> 17 ;
18 [label="gini = 0.0\nsamples = 30\nvalue = [0, 0, 30, 0, 0]"] ;
17 -> 18 ;
19 [label="gini = 0.0\nsamples = 1\nvalue = [0, 1, 0, 0, 0]"] ;
17 -> 19 ;
20 [label="runtimeMinutes <= 277.5\ngini = 0.32\nsamples = 5\nvalue = [0, 4, 0, 0, 1]"] ;
16 -> 20 ;
21 [label="gini = 0.0\nsamples = 4\nvalue = [0, 4, 0, 0, 0]"] ;
20 -> 21 ;
22 [label="gini = 0.0\nsamples = 1\nvalue = [0, 0, 0, 0, 1]"] ;
20 -> 22 ;
23 [label="runtimeMinutes <= 110.5\ngini = 0.365\nsamples = 25\nvalue = [0, 19, 6, 0, 0]"] ;
15 -> 23 ;
24 [label="gini = 0.0\nsamples = 5\nvalue = [0, 0, 5, 0, 0]"] ;
23 -> 24 ;
25 [label="Action <= 0.5\ngini = 0.095\nsamples = 20\nvalue = [0, 19, 1, 0, 0]"] ;
23 -> 25 ;
26 [label="gini = 0.0\nsamples = 19\nvalue = [0, 19, 0, 0, 0]"] ;
25 -> 26 ;
27 [label="gini = 0.0\nsamples = 1\nvalue = [0, 0, 1, 0, 0]"] ;
25 -> 27 ;
28 [label="Mystery <= 0.5\ngini = 0.092\nsamples = 62\nvalue = [0, 59, 3, 0, 0]"] ;
14 -> 28 ;
29 [label="rotten <= 82.0\ngini = 0.063\nsamples = 61\nvalue = [0, 59, 2, 0, 0]"] ;
28 -> 29 ;
30 [label="gini = 0.0\nsamples = 48\nvalue = [0, 48, 0, 0, 0]"] ;
29 -> 30 ;
31 [label="runtimeMinutes <= 112.0\ngini = 0.26\nsamples = 13\nvalue = [0, 11, 2, 0, 0]"] ;
29 -> 31 ;
32 [label="gini = 0.0\nsamples = 2\nvalue = [0, 0, 2, 0, 0]"] ;
31 -> 32 ;
33 [label="gini = 0.0\nsamples = 11\nvalue = [0, 11, 0, 0, 0]"] ;
31 -> 33 ;
34 [label="gini = 0.0\nsamples = 1\nvalue = [0, 0, 1, 0, 0]"] ;
28 -> 34 ;
35 [label="rotten <= 55.5\ngini = 0.334\nsamples = 2734\nvalue = [321, 2203, 85, 113, 12]"] ;
1 -> 35 ;
36 [label="year <= 1977.5\ngini = 0.315\nsamples = 212\nvalue = [173, 28, 9, 1, 1]"] ;
35 -> 36 ;
37 [label="runtimeMinutes <= 97.0\ngini = 0.644\nsamples = 40\nvalue = [12, 19, 8, 0, 1]"] ;
36 -> 37 ;
38 [label="year <= 1971.5\ngini = 0.615\nsamples = 20\nvalue = [9, 3, 8, 0, 0]"] ;
37 -> 38 ;
39 [label="rotten <= 37.0\ngini = 0.32\nsamples = 10\nvalue = [0, 2, 8, 0, 0]"] ;
38 -> 39 ;
40 [label="gini = 0.0\nsamples = 8\nvalue = [0, 0, 8, 0, 0]"] ;
39 -> 40 ;
41 [label="gini = 0.0\nsamples = 2\nvalue = [0, 2, 0, 0, 0]"] ;
39 -> 41 ;
42 [label="Action <= 0.583\ngini = 0.18\nsamples = 10\nvalue = [9, 1, 0, 0, 0]"] ;
38 -> 42 ;
43 [label="gini = 0.0\nsamples = 9\nvalue = [9, 0, 0, 0, 0]"] ;
42 -> 43 ;
44 [label="gini = 0.0\nsamples = 1\nvalue = [0, 1, 0, 0, 0]"] ;
42 -> 44 ;
45 [label="rotten <= 19.0\ngini = 0.335\nsamples = 20\nvalue = [3, 16, 0, 0, 1]"] ;
37 -> 45 ;
46 [label="gini = 0.0\nsamples = 2\nvalue = [2, 0, 0, 0, 0]"] ;
45 -> 46 ;
47 [label="imdb <= 7.45\ngini = 0.204\nsamples = 18\nvalue = [1, 16, 0, 0, 1]"] ;
45 -> 47 ;
48 [label="Crime <= 0.5\ngini = 0.111\nsamples = 17\nvalue = [1, 16, 0, 0, 0]"] ;
47 -> 48 ;
49 [label="gini = 0.0\nsamples = 14\nvalue = [0, 14, 0, 0, 0]"] ;
48 -> 49 ;
50 [label="rotten <= 38.0\ngini = 0.444\nsamples = 3\nvalue = [1, 2, 0, 0, 0]"] ;
48 -> 50 ;
51 [label="gini = 0.0\nsamples = 2\nvalue = [0, 2, 0, 0, 0]"] ;
50 -> 51 ;
52 [label="gini = 0.0\nsamples = 1\nvalue = [1, 0, 0, 0, 0]"] ;
50 -> 52 ;
53 [label="gini = 0.0\nsamples = 1\nvalue = [0, 0, 0, 0, 1]"] ;
47 -> 53 ;
54 [label="runtimeMinutes <= 115.5\ngini = 0.121\nsamples = 172\nvalue = [161, 9, 1, 1, 0]"] ;
36 -> 54 ;
55 [label="rotten <= 51.0\ngini = 0.061\nsamples = 160\nvalue = [155, 3, 1, 1, 0]"] ;
54 -> 55 ;
56 [label="type_tv <= 0.5\ngini = 0.026\nsamples = 153\nvalue = [151, 0, 1, 1, 0]"] ;
55 -> 56 ;
57 [label="year <= 1978.5\ngini = 0.013\nsamples = 152\nvalue = [151, 0, 1, 0, 0]"] ;
56 -> 57 ;
58 [label="Comedy <= 0.5\ngini = 0.444\nsamples = 3\nvalue = [2, 0, 1, 0, 0]"] ;
57 -> 58 ;
59 [label="gini = 0.0\nsamples = 2\nvalue = [2, 0, 0, 0, 0]"] ;
58 -> 59 ;
60 [label="gini = 0.0\nsamples = 1\nvalue = [0, 0, 1, 0, 0]"] ;
58 -> 60 ;
61 [label="gini = 0.0\nsamples = 149\nvalue = [149, 0, 0, 0, 0]"] ;
57 -> 61 ;
62 [label="gini = 0.0\nsamples = 1\nvalue = [0, 0, 0, 1, 0]"] ;
56 -> 62 ;
63 [label="imdb <= 6.35\ngini = 0.49\nsamples = 7\nvalue = [4, 3, 0, 0, 0]"] ;
55 -> 63 ;
64 [label="gini = 0.0\nsamples = 3\nvalue = [0, 3, 0, 0, 0]"] ;
63 -> 64 ;
65 [label="gini = 0.0\nsamples = 4\nvalue = [4, 0, 0, 0, 0]"] ;
63 -> 65 ;
66 [label="rotten <= 40.0\ngini = 0.5\nsamples = 12\nvalue = [6, 6, 0, 0, 0]"] ;
54 -> 66 ;
67 [label="gini = 0.0\nsamples = 4\nvalue = [4, 0, 0, 0, 0]"] ;
66 -> 67 ;
68 [label="runtimeMinutes <= 140.0\ngini = 0.375\nsamples = 8\nvalue = [2, 6, 0, 0, 0]"] ;
66 -> 68 ;
69 [label="rotten <= 52.0\ngini = 0.245\nsamples = 7\nvalue = [1, 6, 0, 0, 0]"] ;
68 -> 69 ;
70 [label="gini = 0.0\nsamples = 6\nvalue = [0, 6, 0, 0, 0]"] ;
69 -> 70 ;
71 [label="gini = 0.0\nsamples = 1\nvalue = [1, 0, 0, 0, 0]"] ;
69 -> 71 ;
72 [label="gini = 0.0\nsamples = 1\nvalue = [1, 0, 0, 0, 0]"] ;
68 -> 72 ;
73 [label="runtimeMinutes <= 71.5\ngini = 0.25\nsamples = 2522\nvalue = [148, 2175, 76, 112, 11]"] ;
35 -> 73 ;
74 [label="startYear <= 1984.5\ngini = 0.57\nsamples = 187\nvalue = [6, 40, 29, 112, 0]"] ;
73 -> 74 ;
75 [label="startYear <= 1969.5\ngini = 0.617\nsamples = 80\nvalue = [0, 38, 29, 13, 0]"] ;
74 -> 75 ;
76 [label="year <= 1968.5\ngini = 0.074\nsamples = 26\nvalue = [0, 1, 25, 0, 0]"] ;
75 -> 76 ;
77 [label="gini = 0.0\nsamples = 23\nvalue = [0, 0, 23, 0, 0]"] ;
76 -> 77 ;
78 [label="imdb <= 7.8\ngini = 0.444\nsamples = 3\nvalue = [0, 1, 2, 0, 0]"] ;
76 -> 78 ;
79 [label="gini = 0.0\nsamples = 2\nvalue = [0, 0, 2, 0, 0]"] ;
78 -> 79 ;
80 [label="gini = 0.0\nsamples = 1\nvalue = [0, 1, 0, 0, 0]"] ;
78 -> 80 ;
81 [label="runtimeMinutes <= 34.0\ngini = 0.467\nsamples = 54\nvalue = [0, 37, 4, 13, 0]"] ;
75 -> 81 ;
82 [label="year <= 1975.0\ngini = 0.375\nsamples = 16\nvalue = [0, 0, 4, 12, 0]"] ;
81 -> 82 ;
83 [label="Game-Show <= 0.5\ngini = 0.32\nsamples = 5\nvalue = [0, 0, 4, 1, 0]"] ;
82 -> 83 ;
84 [label="gini = 0.0\nsamples = 4\nvalue = [0, 0, 4, 0, 0]"] ;
83 -> 84 ;
85 [label="gini = 0.0\nsamples = 1\nvalue = [0, 0, 0, 1, 0]"] ;
83 -> 85 ;
86 [label="gini = 0.0\nsamples = 11\nvalue = [0, 0, 0, 11, 0]"] ;
82 -> 86 ;
87 [label="rotten <= 94.0\ngini = 0.051\nsamples = 38\nvalue = [0, 37, 0, 1, 0]"] ;
81 -> 87 ;
88 [label="gini = 0.0\nsamples = 37\nvalue = [0, 37, 0, 0, 0]"] ;
87 -> 88 ;
89 [label="gini = 0.0\nsamples = 1\nvalue = [0, 0, 0, 1, 0]"] ;
87 -> 89 ;
90 [label="runtimeMinutes <= 66.0\ngini = 0.14\nsamples = 107\nvalue = [6, 2, 0, 99, 0]"] ;
74 -> 90 ;
91 [label="startYear <= 1986.5\ngini = 0.039\nsamples = 100\nvalue = [0, 2, 0, 98, 0]"] ;
90 -> 91 ;
92 [label="runtimeMinutes <= 39.0\ngini = 0.375\nsamples = 8\nvalue = [0, 2, 0, 6, 0]"] ;
91 -> 92 ;
93 [label="gini = 0.0\nsamples = 5\nvalue = [0, 0, 0, 5, 0]"] ;
92 -> 93 ;
94 [label="Documentary <= 0.5\ngini = 0.444\nsamples = 3\nvalue = [0, 2, 0, 1, 0]"] ;
92 -> 94 ;
95 [label="gini = 0.0\nsamples = 2\nvalue = [0, 2, 0, 0, 0]"] ;
94 -> 95 ;
96 [label="gini = 0.0\nsamples = 1\nvalue = [0, 0, 0, 1, 0]"] ;
94 -> 96 ;
97 [label="gini = 0.0\nsamples = 92\nvalue = [0, 0, 0, 92, 0]"] ;
91 -> 97 ;
98 [label="year <= 1990.0\ngini = 0.245\nsamples = 7\nvalue = [6, 0, 0, 1, 0]"] ;
90 -> 98 ;
99 [label="gini = 0.0\nsamples = 1\nvalue = [0, 0, 0, 1, 0]"] ;
98 -> 99 ;
100 [label="gini = 0.0\nsamples = 6\nvalue = [6, 0, 0, 0, 0]"] ;
98 -> 100 ;
101 [label="rotten <= 80.5\ngini = 0.16\nsamples = 2335\nvalue = [142, 2135, 47, 0, 11]"] ;
73 -> 101 ;
102 [label="startYear <= 1967.5\ngini = 0.108\nsamples = 2141\nvalue = [65, 2021, 46, 0, 9]"] ;
101 -> 102 ;
103 [label="runtimeMinutes <= 89.5\ngini = 0.476\nsamples = 105\nvalue = [0, 64, 41, 0, 0]"] ;
102 -> 103 ;
104 [label="gini = 0.0\nsamples = 41\nvalue = [0, 0, 41, 0, 0]"] ;
103 -> 104 ;
105 [label="gini = 0.0\nsamples = 64\nvalue = [0, 64, 0, 0, 0]"] ;
103 -> 105 ;
106 [label="runtimeMinutes <= 280.5\ngini = 0.075\nsamples = 2036\nvalue = [65, 1957, 5, 0, 9]"] ;
102 -> 106 ;
107 [label="year <= 1992.5\ngini = 0.067\nsamples = 2027\nvalue = [65, 1957, 5, 0, 0]"] ;
106 -> 107 ;
108 [label="imdb <= 1.75\ngini = 0.018\nsamples = 1731\nvalue = [11, 1715, 5, 0, 0]"] ;
107 -> 108 ;
109 [label="gini = 0.0\nsamples = 1\nvalue = [1, 0, 0, 0, 0]"] ;
108 -> 109 ;
110 [label="startYear <= 1968.5\ngini = 0.017\nsamples = 1730\nvalue = [10, 1715, 5, 0, 0]"] ;
108 -> 110 ;
111 [label="runtimeMinutes <= 89.5\ngini = 0.245\nsamples = 28\nvalue = [0, 24, 4, 0, 0]"] ;
110 -> 111 ;
112 [label="Drama <= 0.5\ngini = 0.5\nsamples = 8\nvalue = [0, 4, 4, 0, 0]"] ;
111 -> 112 ;
113 [label="runtimeMinutes <= 85.5\ngini = 0.444\nsamples = 6\nvalue = [0, 4, 2, 0, 0]"] ;
112 -> 113 ;
114 [label="gini = 0.0\nsamples = 1\nvalue = [0, 0, 1, 0, 0]"] ;
113 -> 114 ;
115 [label="Thriller <= 0.5\ngini = 0.32\nsamples = 5\nvalue = [0, 4, 1, 0, 0]"] ;
113 -> 115 ;
116 [label="gini = 0.0\nsamples = 4\nvalue = [0, 4, 0, 0, 0]"] ;
115 -> 116 ;
117 [label="gini = 0.0\nsamples = 1\nvalue = [0, 0, 1, 0, 0]"] ;
115 -> 117 ;
118 [label="gini = 0.0\nsamples = 2\nvalue = [0, 0, 2, 0, 0]"] ;
112 -> 118 ;
119 [label="gini = 0.0\nsamples = 20\nvalue = [0, 20, 0, 0, 0]"] ;
111 -> 119 ;
120 [label="year <= 1990.5\ngini = 0.013\nsamples = 1702\nvalue = [10, 1691, 1, 0, 0]"] ;
110 -> 120 ;
121 [label="rotten <= 57.5\ngini = 0.004\nsamples = 1589\nvalue = [2, 1586, 1, 0, 0]"] ;
120 -> 121 ;
122 [label="imdb <= 5.2\ngini = 0.165\nsamples = 11\nvalue = [1, 10, 0, 0, 0]"] ;
121 -> 122 ;
123 [label="gini = 0.0\nsamples = 1\nvalue = [1, 0, 0, 0, 0]"] ;
122 -> 123 ;
124 [label="gini = 0.0\nsamples = 10\nvalue = [0, 10, 0, 0, 0]"] ;
122 -> 124 ;
125 [label="runtimeMinutes <= 73.5\ngini = 0.003\nsamples = 1578\nvalue = [1, 1576, 1, 0, 0]"] ;
121 -> 125 ;
126 [label="year <= 1986.5\ngini = 0.117\nsamples = 16\nvalue = [1, 15, 0, 0, 0]"] ;
125 -> 126 ;
127 [label="gini = 0.0\nsamples = 15\nvalue = [0, 15, 0, 0, 0]"] ;
126 -> 127 ;
128 [label="gini = 0.0\nsamples = 1\nvalue = [1, 0, 0, 0, 0]"] ;
126 -> 128 ;
129 [label="War <= 0.511\ngini = 0.001\nsamples = 1562\nvalue = [0, 1561, 1, 0, 0]"] ;
125 -> 129 ;
130 [label="gini = 0.0\nsamples = 1530\nvalue = [0, 1530, 0, 0, 0]"] ;
129 -> 130 ;
131 [label="startYear <= 1969.5\ngini = 0.061\nsamples = 32\nvalue = [0, 31, 1, 0, 0]"] ;
129 -> 131 ;
132 [label="imdb <= 5.25\ngini = 0.375\nsamples = 4\nvalue = [0, 3, 1, 0, 0]"] ;
131 -> 132 ;
133 [label="gini = 0.0\nsamples = 1\nvalue = [0, 0, 1, 0, 0]"] ;
132 -> 133 ;
134 [label="gini = 0.0\nsamples = 3\nvalue = [0, 3, 0, 0, 0]"] ;
132 -> 134 ;
135 [label="gini = 0.0\nsamples = 28\nvalue = [0, 28, 0, 0, 0]"] ;
131 -> 135 ;
136 [label="runtimeMinutes <= 81.5\ngini = 0.132\nsamples = 113\nvalue = [8, 105, 0, 0, 0]"] ;
120 -> 136 ;
137 [label="Fantasy <= 0.5\ngini = 0.278\nsamples = 6\nvalue = [5, 1, 0, 0, 0]"] ;
136 -> 137 ;
138 [label="gini = 0.0\nsamples = 5\nvalue = [5, 0, 0, 0, 0]"] ;
137 -> 138 ;
139 [label="gini = 0.0\nsamples = 1\nvalue = [0, 1, 0, 0, 0]"] ;
137 -> 139 ;
140 [label="rating <= 10.0\ngini = 0.055\nsamples = 107\nvalue = [3, 104, 0, 0, 0]"] ;
136 -> 140 ;
141 [label="Documentary <= 0.074\ngini = 0.42\nsamples = 10\nvalue = [3, 7, 0, 0, 0]"] ;
140 -> 141 ;
142 [label="gini = 0.0\nsamples = 6\nvalue = [0, 6, 0, 0, 0]"] ;
141 -> 142 ;
143 [label="rating <= 3.5\ngini = 0.375\nsamples = 4\nvalue = [3, 1, 0, 0, 0]"] ;
141 -> 143 ;
144 [label="gini = 0.0\nsamples = 1\nvalue = [0, 1, 0, 0, 0]"] ;
143 -> 144 ;
145 [label="gini = 0.0\nsamples = 3\nvalue = [3, 0, 0, 0, 0]"] ;
143 -> 145 ;
146 [label="gini = 0.0\nsamples = 97\nvalue = [0, 97, 0, 0, 0]"] ;
140 -> 146 ;
147 [label="rating <= 10.0\ngini = 0.298\nsamples = 296\nvalue = [54, 242, 0, 0, 0]"] ;
107 -> 147 ;
148 [label="runtimeMinutes <= 115.0\ngini = 0.32\nsamples = 35\nvalue = [28, 7, 0, 0, 0]"] ;
147 -> 148 ;
149 [label="imdb <= 2.85\ngini = 0.067\nsamples = 29\nvalue = [28, 1, 0, 0, 0]"] ;
148 -> 149 ;
150 [label="gini = 0.0\nsamples = 1\nvalue = [0, 1, 0, 0, 0]"] ;
149 -> 150 ;
151 [label="gini = 0.0\nsamples = 28\nvalue = [28, 0, 0, 0, 0]"] ;
149 -> 151 ;
152 [label="gini = 0.0\nsamples = 6\nvalue = [0, 6, 0, 0, 0]"] ;
148 -> 152 ;
153 [label="runtimeMinutes <= 80.5\ngini = 0.179\nsamples = 261\nvalue = [26, 235, 0, 0, 0]"] ;
147 -> 153 ;
154 [label="gini = 0.0\nsamples = 8\nvalue = [8, 0, 0, 0, 0]"] ;
153 -> 154 ;
155 [label="rotten <= 71.0\ngini = 0.132\nsamples = 253\nvalue = [18, 235, 0, 0, 0]"] ;
153 -> 155 ;
156 [label="runtimeMinutes <= 110.0\ngini = 0.079\nsamples = 244\nvalue = [10, 234, 0, 0, 0]"] ;
155 -> 156 ;
157 [label="year <= 1995.5\ngini = 0.045\nsamples = 219\nvalue = [5, 214, 0, 0, 0]"] ;
156 -> 157 ;
158 [label="gini = 0.0\nsamples = 162\nvalue = [0, 162, 0, 0, 0]"] ;
157 -> 158 ;
159 [label="Adventure <= 0.048\ngini = 0.16\nsamples = 57\nvalue = [5, 52, 0, 0, 0]"] ;
157 -> 159 ;
160 [label="gini = 0.0\nsamples = 43\nvalue = [0, 43, 0, 0, 0]"] ;
159 -> 160 ;
161 [label="imdb <= 4.7\ngini = 0.459\nsamples = 14\nvalue = [5, 9, 0, 0, 0]"] ;
159 -> 161 ;
162 [label="rating <= 15.623\ngini = 0.375\nsamples = 4\nvalue = [3, 1, 0, 0, 0]"] ;
161 -> 162 ;
163 [label="gini = 0.0\nsamples = 2\nvalue = [2, 0, 0, 0, 0]"] ;
162 -> 163 ;
164 [label="imdb <= 3.3\ngini = 0.5\nsamples = 2\nvalue = [1, 1, 0, 0, 0]"] ;
162 -> 164 ;
165 [label="gini = 0.0\nsamples = 1\nvalue = [1, 0, 0, 0, 0]"] ;
164 -> 165 ;
166 [label="gini = 0.0\nsamples = 1\nvalue = [0, 1, 0, 0, 0]"] ;
164 -> 166 ;
167 [label="Mystery <= 0.034\ngini = 0.32\nsamples = 10\nvalue = [2, 8, 0, 0, 0]"] ;
161 -> 167 ;
168 [label="gini = 0.0\nsamples = 1\nvalue = [1, 0, 0, 0, 0]"] ;
167 -> 168 ;
169 [label="rating <= 17.0\ngini = 0.198\nsamples = 9\nvalue = [1, 8, 0, 0, 0]"] ;
167 -> 169 ;
170 [label="gini = 0.0\nsamples = 7\nvalue = [0, 7, 0, 0, 0]"] ;
169 -> 170 ;
171 [label="imdb <= 5.45\ngini = 0.5\nsamples = 2\nvalue = [1, 1, 0, 0, 0]"] ;
169 -> 171 ;
172 [label="gini = 0.0\nsamples = 1\nvalue = [0, 1, 0, 0, 0]"] ;
171 -> 172 ;
173 [label="gini = 0.0\nsamples = 1\nvalue = [1, 0, 0, 0, 0]"] ;
171 -> 173 ;
174 [label="runtimeMinutes <= 121.0\ngini = 0.32\nsamples = 25\nvalue = [5, 20, 0, 0, 0]"] ;
156 -> 174 ;
175 [label="rotten <= 62.589\ngini = 0.408\nsamples = 7\nvalue = [5, 2, 0, 0, 0]"] ;
174 -> 175 ;
176 [label="gini = 0.0\nsamples = 2\nvalue = [0, 2, 0, 0, 0]"] ;
175 -> 176 ;
177 [label="gini = 0.0\nsamples = 5\nvalue = [5, 0, 0, 0, 0]"] ;
175 -> 177 ;
178 [label="gini = 0.0\nsamples = 18\nvalue = [0, 18, 0, 0, 0]"] ;
174 -> 178 ;
179 [label="Romance <= 0.5\ngini = 0.198\nsamples = 9\nvalue = [8, 1, 0, 0, 0]"] ;
155 -> 179 ;
180 [label="gini = 0.0\nsamples = 7\nvalue = [7, 0, 0, 0, 0]"] ;
179 -> 180 ;
181 [label="runtimeMinutes <= 92.5\ngini = 0.5\nsamples = 2\nvalue = [1, 1, 0, 0, 0]"] ;
179 -> 181 ;
182 [label="gini = 0.0\nsamples = 1\nvalue = [1, 0, 0, 0, 0]"] ;
181 -> 182 ;
183 [label="gini = 0.0\nsamples = 1\nvalue = [0, 1, 0, 0, 0]"] ;
181 -> 183 ;
184 [label="gini = 0.0\nsamples = 9\nvalue = [0, 0, 0, 0, 9]"] ;
106 -> 184 ;
185 [label="year <= 1985.5\ngini = 0.497\nsamples = 194\nvalue = [77, 114, 1, 0, 2]"] ;
101 -> 185 ;
186 [label="year <= 1980.5\ngini = 0.165\nsamples = 122\nvalue = [10, 111, 1, 0, 0]"] ;
185 -> 186 ;
187 [label="runtimeMinutes <= 89.0\ngini = 0.02\nsamples = 99\nvalue = [0, 98, 1, 0, 0]"] ;
186 -> 187 ;
188 [label="Mystery <= 0.5\ngini = 0.245\nsamples = 7\nvalue = [0, 6, 1, 0, 0]"] ;
187 -> 188 ;
189 [label="gini = 0.0\nsamples = 6\nvalue = [0, 6, 0, 0, 0]"] ;
188 -> 189 ;
190 [label="gini = 0.0\nsamples = 1\nvalue = [0, 0, 1, 0, 0]"] ;
188 -> 190 ;
191 [label="gini = 0.0\nsamples = 92\nvalue = [0, 92, 0, 0, 0]"] ;
187 -> 191 ;
192 [label="runtimeMinutes <= 103.0\ngini = 0.491\nsamples = 23\nvalue = [10, 13, 0, 0, 0]"] ;
186 -> 192 ;
193 [label="gini = 0.0\nsamples = 11\nvalue = [0, 11, 0, 0, 0]"] ;
192 -> 193 ;
194 [label="runtimeMinutes <= 124.5\ngini = 0.278\nsamples = 12\nvalue = [10, 2, 0, 0, 0]"] ;
192 -> 194 ;
195 [label="gini = 0.0\nsamples = 9\nvalue = [9, 0, 0, 0, 0]"] ;
194 -> 195 ;
196 [label="subtype_tvMovie <= 0.5\ngini = 0.444\nsamples = 3\nvalue = [1, 2, 0, 0, 0]"] ;
194 -> 196 ;
197 [label="gini = 0.0\nsamples = 2\nvalue = [0, 2, 0, 0, 0]"] ;
196 -> 197 ;
198 [label="gini = 0.0\nsamples = 1\nvalue = [1, 0, 0, 0, 0]"] ;
196 -> 198 ;
199 [label="endYear <= 2000.136\ngini = 0.132\nsamples = 72\nvalue = [67, 3, 0, 0, 2]"] ;
185 -> 199 ;
200 [label="gini = 0.0\nsamples = 2\nvalue = [0, 0, 0, 0, 2]"] ;
199 -> 200 ;
201 [label="runtimeMinutes <= 83.5\ngini = 0.082\nsamples = 70\nvalue = [67, 3, 0, 0, 0]"] ;
199 -> 201 ;
202 [label="year <= 1991.0\ngini = 0.5\nsamples = 4\nvalue = [2, 2, 0, 0, 0]"] ;
201 -> 202 ;
203 [label="gini = 0.0\nsamples = 2\nvalue = [0, 2, 0, 0, 0]"] ;
202 -> 203 ;
204 [label="gini = 0.0\nsamples = 2\nvalue = [2, 0, 0, 0, 0]"] ;
202 -> 204 ;
205 [label="rotten <= 81.5\ngini = 0.03\nsamples = 66\nvalue = [65, 1, 0, 0, 0]"] ;
201 -> 205 ;
206 [label="runtimeMinutes <= 107.5\ngini = 0.444\nsamples = 3\nvalue = [2, 1, 0, 0, 0]"] ;
205 -> 206 ;
207 [label="gini = 0.0\nsamples = 1\nvalue = [0, 1, 0, 0, 0]"] ;
206 -> 207 ;
208 [label="gini = 0.0\nsamples = 2\nvalue = [2, 0, 0, 0, 0]"] ;
206 -> 208 ;
209 [label="gini = 0.0\nsamples = 63\nvalue = [63, 0, 0, 0, 0]"] ;
205 -> 209 ;
210 [label="runtimeMinutes <= 64.5\ngini = 0.208\nsamples = 11579\nvalue = [10253, 257, 0, 1024, 45]"] ;
0 -> 210 [labeldistance=2.5, labelangle=-45, headlabel="False"] ;
211 [label="runtimeMinutes <= 63.5\ngini = 0.017\nsamples = 1026\nvalue = [9, 0, 0, 1017, 0]"] ;
210 -> 211 ;
212 [label="runtimeMinutes <= 62.5\ngini = 0.004\nsamples = 1011\nvalue = [2, 0, 0, 1009, 0]"] ;
211 -> 212 ;
213 [label="gini = 0.0\nsamples = 999\nvalue = [0, 0, 0, 999, 0]"] ;
212 -> 213 ;
214 [label="Documentary <= 0.5\ngini = 0.278\nsamples = 12\nvalue = [2, 0, 0, 10, 0]"] ;
212 -> 214 ;
215 [label="imdb <= 5.753\ngini = 0.5\nsamples = 4\nvalue = [2, 0, 0, 2, 0]"] ;
214 -> 215 ;
216 [label="gini = 0.0\nsamples = 2\nvalue = [0, 0, 0, 2, 0]"] ;
215 -> 216 ;
217 [label="gini = 0.0\nsamples = 2\nvalue = [2, 0, 0, 0, 0]"] ;
215 -> 217 ;
218 [label="gini = 0.0\nsamples = 8\nvalue = [0, 0, 0, 8, 0]"] ;
214 -> 218 ;
219 [label="year <= 2007.5\ngini = 0.498\nsamples = 15\nvalue = [7, 0, 0, 8, 0]"] ;
211 -> 219 ;
220 [label="History <= 0.5\ngini = 0.245\nsamples = 7\nvalue = [1, 0, 0, 6, 0]"] ;
219 -> 220 ;
221 [label="gini = 0.0\nsamples = 6\nvalue = [0, 0, 0, 6, 0]"] ;
220 -> 221 ;
222 [label="gini = 0.0\nsamples = 1\nvalue = [1, 0, 0, 0, 0]"] ;
220 -> 222 ;
223 [label="year <= 2015.5\ngini = 0.375\nsamples = 8\nvalue = [6, 0, 0, 2, 0]"] ;
219 -> 223 ;
224 [label="imdb <= 6.65\ngini = 0.245\nsamples = 7\nvalue = [6, 0, 0, 1, 0]"] ;
223 -> 224 ;
225 [label="Documentary <= 0.5\ngini = 0.444\nsamples = 3\nvalue = [2, 0, 0, 1, 0]"] ;
224 -> 225 ;
226 [label="gini = 0.0\nsamples = 1\nvalue = [0, 0, 0, 1, 0]"] ;
225 -> 226 ;
227 [label="gini = 0.0\nsamples = 2\nvalue = [2, 0, 0, 0, 0]"] ;
225 -> 227 ;
228 [label="gini = 0.0\nsamples = 4\nvalue = [4, 0, 0, 0, 0]"] ;
224 -> 228 ;
229 [label="gini = 0.0\nsamples = 1\nvalue = [0, 0, 0, 1, 0]"] ;
223 -> 229 ;
230 [label="runtimeMinutes <= 147.5\ngini = 0.057\nsamples = 10553\nvalue = [10244, 257, 0, 7, 45]"] ;
210 -> 230 ;
231 [label="startYear <= 1997.5\ngini = 0.01\nsamples = 10287\nvalue = [10234, 46, 0, 7, 0]"] ;
230 -> 231 ;
232 [label="runtimeMinutes <= 101.5\ngini = 0.472\nsamples = 68\nvalue = [42, 26, 0, 0, 0]"] ;
231 -> 232 ;
233 [label="rating <= 10.0\ngini = 0.499\nsamples = 46\nvalue = [22, 24, 0, 0, 0]"] ;
232 -> 233 ;
234 [label="gini = 0.0\nsamples = 12\nvalue = [12, 0, 0, 0, 0]"] ;
233 -> 234 ;
235 [label="runtimeMinutes <= 93.5\ngini = 0.415\nsamples = 34\nvalue = [10, 24, 0, 0, 0]"] ;
233 -> 235 ;
236 [label="imdb <= 5.8\ngini = 0.5\nsamples = 18\nvalue = [9, 9, 0, 0, 0]"] ;
235 -> 236 ;
237 [label="Fantasy <= 0.5\ngini = 0.298\nsamples = 11\nvalue = [2, 9, 0, 0, 0]"] ;
236 -> 237 ;
238 [label="runtimeMinutes <= 78.5\ngini = 0.18\nsamples = 10\nvalue = [1, 9, 0, 0, 0]"] ;
237 -> 238 ;
239 [label="gini = 0.0\nsamples = 1\nvalue = [1, 0, 0, 0, 0]"] ;
238 -> 239 ;
240 [label="gini = 0.0\nsamples = 9\nvalue = [0, 9, 0, 0, 0]"] ;
238 -> 240 ;
241 [label="gini = 0.0\nsamples = 1\nvalue = [1, 0, 0, 0, 0]"] ;
237 -> 241 ;
242 [label="gini = 0.0\nsamples = 7\nvalue = [7, 0, 0, 0, 0]"] ;
236 -> 242 ;
243 [label="Sci-Fi <= 0.5\ngini = 0.117\nsamples = 16\nvalue = [1, 15, 0, 0, 0]"] ;
235 -> 243 ;
244 [label="gini = 0.0\nsamples = 14\nvalue = [0, 14, 0, 0, 0]"] ;
243 -> 244 ;
245 [label="runtimeMinutes <= 98.0\ngini = 0.5\nsamples = 2\nvalue = [1, 1, 0, 0, 0]"] ;
243 -> 245 ;
246 [label="gini = 0.0\nsamples = 1\nvalue = [1, 0, 0, 0, 0]"] ;
245 -> 246 ;
247 [label="gini = 0.0\nsamples = 1\nvalue = [0, 1, 0, 0, 0]"] ;
245 -> 247 ;
248 [label="runtimeMinutes <= 137.0\ngini = 0.165\nsamples = 22\nvalue = [20, 2, 0, 0, 0]"] ;
232 -> 248 ;
249 [label="gini = 0.0\nsamples = 20\nvalue = [20, 0, 0, 0, 0]"] ;
248 -> 249 ;
250 [label="gini = 0.0\nsamples = 2\nvalue = [0, 2, 0, 0, 0]"] ;
248 -> 250 ;
251 [label="runtimeMinutes <= 141.5\ngini = 0.005\nsamples = 10219\nvalue = [10192, 20, 0, 7, 0]"] ;
231 -> 251 ;
252 [label="runtimeMinutes <= 65.5\ngini = 0.004\nsamples = 10188\nvalue = [10169, 12, 0, 7, 0]"] ;
251 -> 252 ;
253 [label="startYear <= 2008.0\ngini = 0.397\nsamples = 22\nvalue = [16, 0, 0, 6, 0]"] ;
252 -> 253 ;
254 [label="gini = 0.0\nsamples = 3\nvalue = [0, 0, 0, 3, 0]"] ;
253 -> 254 ;
255 [label="endYear <= 2008.636\ngini = 0.266\nsamples = 19\nvalue = [16, 0, 0, 3, 0]"] ;
253 -> 255 ;
256 [label="startYear <= 2016.5\ngini = 0.111\nsamples = 17\nvalue = [16, 0, 0, 1, 0]"] ;
255 -> 256 ;
257 [label="gini = 0.0\nsamples = 16\nvalue = [16, 0, 0, 0, 0]"] ;
256 -> 257 ;
258 [label="gini = 0.0\nsamples = 1\nvalue = [0, 0, 0, 1, 0]"] ;
256 -> 258 ;
259 [label="gini = 0.0\nsamples = 2\nvalue = [0, 0, 0, 2, 0]"] ;
255 -> 259 ;
260 [label="startYear <= 1998.5\ngini = 0.003\nsamples = 10166\nvalue = [10153, 12, 0, 1, 0]"] ;
252 -> 260 ;
261 [label="runtimeMinutes <= 126.5\ngini = 0.165\nsamples = 89\nvalue = [81, 7, 0, 1, 0]"] ;
260 -> 261 ;
262 [label="runtimeMinutes <= 67.0\ngini = 0.131\nsamples = 86\nvalue = [80, 5, 0, 1, 0]"] ;
261 -> 262 ;
263 [label="gini = 0.0\nsamples = 1\nvalue = [0, 0, 0, 1, 0]"] ;
262 -> 263 ;
264 [label="imdb <= 4.05\ngini = 0.111\nsamples = 85\nvalue = [80, 5, 0, 0, 0]"] ;
262 -> 264 ;
265 [label="runtimeMinutes <= 96.5\ngini = 0.397\nsamples = 11\nvalue = [8, 3, 0, 0, 0]"] ;
264 -> 265 ;
266 [label="Family <= 0.5\ngini = 0.198\nsamples = 9\nvalue = [8, 1, 0, 0, 0]"] ;
265 -> 266 ;
267 [label="gini = 0.0\nsamples = 7\nvalue = [7, 0, 0, 0, 0]"] ;
266 -> 267 ;
268 [label="runtimeMinutes <= 88.5\ngini = 0.5\nsamples = 2\nvalue = [1, 1, 0, 0, 0]"] ;
266 -> 268 ;
269 [label="gini = 0.0\nsamples = 1\nvalue = [0, 1, 0, 0, 0]"] ;
268 -> 269 ;
270 [label="gini = 0.0\nsamples = 1\nvalue = [1, 0, 0, 0, 0]"] ;
268 -> 270 ;
271 [label="gini = 0.0\nsamples = 2\nvalue = [0, 2, 0, 0, 0]"] ;
265 -> 271 ;
272 [label="Music <= 0.5\ngini = 0.053\nsamples = 74\nvalue = [72, 2, 0, 0, 0]"] ;
264 -> 272 ;
273 [label="Adventure <= 0.5\ngini = 0.029\nsamples = 69\nvalue = [68, 1, 0, 0, 0]"] ;
272 -> 273 ;
274 [label="gini = 0.0\nsamples = 60\nvalue = [60, 0, 0, 0, 0]"] ;
273 -> 274 ;
275 [label="rating <= 15.623\ngini = 0.198\nsamples = 9\nvalue = [8, 1, 0, 0, 0]"] ;
273 -> 275 ;
276 [label="gini = 0.0\nsamples = 8\nvalue = [8, 0, 0, 0, 0]"] ;
275 -> 276 ;
277 [label="gini = 0.0\nsamples = 1\nvalue = [0, 1, 0, 0, 0]"] ;
275 -> 277 ;
278 [label="runtimeMinutes <= 97.0\ngini = 0.32\nsamples = 5\nvalue = [4, 1, 0, 0, 0]"] ;
272 -> 278 ;
279 [label="gini = 0.0\nsamples = 4\nvalue = [4, 0, 0, 0, 0]"] ;
278 -> 279 ;
280 [label="gini = 0.0\nsamples = 1\nvalue = [0, 1, 0, 0, 0]"] ;
278 -> 280 ;
281 [label="imdb <= 6.05\ngini = 0.444\nsamples = 3\nvalue = [1, 2, 0, 0, 0]"] ;
261 -> 281 ;
282 [label="gini = 0.0\nsamples = 2\nvalue = [0, 2, 0, 0, 0]"] ;
281 -> 282 ;
283 [label="gini = 0.0\nsamples = 1\nvalue = [1, 0, 0, 0, 0]"] ;
281 -> 283 ;
284 [label="year <= 1997.5\ngini = 0.001\nsamples = 10077\nvalue = [10072, 5, 0, 0, 0]"] ;
260 -> 284 ;
285 [label="imdb <= 7.85\ngini = 0.128\nsamples = 29\nvalue = [27, 2, 0, 0, 0]"] ;
284 -> 285 ;
286 [label="gini = 0.0\nsamples = 27\nvalue = [27, 0, 0, 0, 0]"] ;
285 -> 286 ;
287 [label="gini = 0.0\nsamples = 2\nvalue = [0, 2, 0, 0, 0]"] ;
285 -> 287 ;
288 [label="runtimeMinutes <= 137.5\ngini = 0.001\nsamples = 10048\nvalue = [10045, 3, 0, 0, 0]"] ;
284 -> 288 ;
289 [label="startYear <= 1999.21\ngini = 0.0\nsamples = 9997\nvalue = [9996, 1, 0, 0, 0]"] ;
288 -> 289 ;
290 [label="Crime <= 0.5\ngini = 0.021\nsamples = 93\nvalue = [92, 1, 0, 0, 0]"] ;
289 -> 290 ;
291 [label="gini = 0.0\nsamples = 82\nvalue = [82, 0, 0, 0, 0]"] ;
290 -> 291 ;
292 [label="subtype_movie <= 0.5\ngini = 0.165\nsamples = 11\nvalue = [10, 1, 0, 0, 0]"] ;
290 -> 292 ;
293 [label="rotten <= 62.089\ngini = 0.444\nsamples = 3\nvalue = [2, 1, 0, 0, 0]"] ;
292 -> 293 ;
294 [label="gini = 0.0\nsamples = 1\nvalue = [0, 1, 0, 0, 0]"] ;
293 -> 294 ;
295 [label="gini = 0.0\nsamples = 2\nvalue = [2, 0, 0, 0, 0]"] ;
293 -> 295 ;
296 [label="gini = 0.0\nsamples = 8\nvalue = [8, 0, 0, 0, 0]"] ;
292 -> 296 ;
297 [label="gini = 0.0\nsamples = 9904\nvalue = [9904, 0, 0, 0, 0]"] ;
289 -> 297 ;
298 [label="rating <= 3.5\ngini = 0.075\nsamples = 51\nvalue = [49, 2, 0, 0, 0]"] ;
288 -> 298 ;
299 [label="gini = 0.0\nsamples = 2\nvalue = [0, 2, 0, 0, 0]"] ;
298 -> 299 ;
300 [label="gini = 0.0\nsamples = 49\nvalue = [49, 0, 0, 0, 0]"] ;
298 -> 300 ;
301 [label="rating <= 10.0\ngini = 0.383\nsamples = 31\nvalue = [23, 8, 0, 0, 0]"] ;
251 -> 301 ;
302 [label="gini = 0.0\nsamples = 5\nvalue = [0, 5, 0, 0, 0]"] ;
301 -> 302 ;
303 [label="Fantasy <= 0.5\ngini = 0.204\nsamples = 26\nvalue = [23, 3, 0, 0, 0]"] ;
301 -> 303 ;
304 [label="Musical <= 0.5\ngini = 0.147\nsamples = 25\nvalue = [23, 2, 0, 0, 0]"] ;
303 -> 304 ;
305 [label="runtimeMinutes <= 146.5\ngini = 0.08\nsamples = 24\nvalue = [23, 1, 0, 0, 0]"] ;
304 -> 305 ;
306 [label="gini = 0.0\nsamples = 20\nvalue = [20, 0, 0, 0, 0]"] ;
305 -> 306 ;
307 [label="year <= 2015.5\ngini = 0.375\nsamples = 4\nvalue = [3, 1, 0, 0, 0]"] ;
305 -> 307 ;
308 [label="gini = 0.0\nsamples = 1\nvalue = [0, 1, 0, 0, 0]"] ;
307 -> 308 ;
309 [label="gini = 0.0\nsamples = 3\nvalue = [3, 0, 0, 0, 0]"] ;
307 -> 309 ;
310 [label="gini = 0.0\nsamples = 1\nvalue = [0, 1, 0, 0, 0]"] ;
304 -> 310 ;
311 [label="gini = 0.0\nsamples = 1\nvalue = [0, 1, 0, 0, 0]"] ;
303 -> 311 ;
312 [label="runtimeMinutes <= 224.0\ngini = 0.341\nsamples = 266\nvalue = [10, 211, 0, 0, 45]"] ;
230 -> 312 ;
313 [label="rotten <= 81.5\ngini = 0.086\nsamples = 221\nvalue = [10, 211, 0, 0, 0]"] ;
312 -> 313 ;
314 [label="rotten <= 20.5\ngini = 0.02\nsamples = 203\nvalue = [2, 201, 0, 0, 0]"] ;
313 -> 314 ;
315 [label="Thriller <= 0.5\ngini = 0.444\nsamples = 3\nvalue = [2, 1, 0, 0, 0]"] ;
314 -> 315 ;
316 [label="gini = 0.0\nsamples = 1\nvalue = [0, 1, 0, 0, 0]"] ;
315 -> 316 ;
317 [label="gini = 0.0\nsamples = 2\nvalue = [2, 0, 0, 0, 0]"] ;
315 -> 317 ;
318 [label="gini = 0.0\nsamples = 200\nvalue = [0, 200, 0, 0, 0]"] ;
314 -> 318 ;
319 [label="runtimeMinutes <= 157.5\ngini = 0.494\nsamples = 18\nvalue = [8, 10, 0, 0, 0]"] ;
313 -> 319 ;
320 [label="gini = 0.0\nsamples = 8\nvalue = [8, 0, 0, 0, 0]"] ;
319 -> 320 ;
321 [label="gini = 0.0\nsamples = 10\nvalue = [0, 10, 0, 0, 0]"] ;
319 -> 321 ;
322 [label="gini = 0.0\nsamples = 45\nvalue = [0, 0, 0, 0, 45]"] ;
312 -> 322 ;
}